svm_type c_svc
kernel_type sigmoid
gamma 0.0078125
coef0 0
nr_class 2
total_sv 60
rho -0.4109384685580153
label 1 -1
nr_sv 30 30
SV
0.03125 1:0.36862745 2:0.54509804 3:0.44225899 4:0.57053377 5:1.3207737 
0.03125 1:0.37647059 2:0.57647059 3:0.46977124 4:0.61254085 5:1.7407229 
0.03125 1:0.3254902 2:0.50196078 3:0.42587146 4:0.53640387 5:1.503364 
0.03125 1:0.42745098 2:0.58823529 3:0.51615605 4:0.66443355 5:1.2902382 
0.03125 1:0.44313725 2:0.59607843 3:0.52155501 4:0.67535403 5:1.4854571 
0.03125 1:0.44313725 2:0.63137255 3:0.51834831 4:0.64441721 5:1.9142701 
0.03125 1:0.3254902 2:0.54117647 3:0.45944989 4:0.63122958 5:1.554291 
0.03125 1:0.46666667 2:0.64313725 3:0.57427832 4:0.72076525 5:1.4986787 
0.03125 1:0.45490196 2:0.60784314 3:0.53823529 4:0.69110839 5:1.3238609 
0.03125 1:0.34509804 2:0.61176471 3:0.4943219 4:0.67887391 5:2.0710355 
0.03125 1:0.45882353 2:0.65490196 3:0.57116013 4:0.73385757 5:1.3377598 
0.03125 1:0.40784314 2:0.56078431 3:0.48762936 4:0.64033905 5:1.3607925 
0.03125 1:0.36470588 2:0.52156863 3:0.45552151 4:0.58227124 5:1.4723965 
0.03125 1:0.51764706 2:0.67058824 3:0.60279139 4:0.758878 5:1.3867213 
0.03125 1:0.31764706 2:0.54509804 3:0.44648693 4:0.60903459 5:1.3333929 
0.03125 1:0.37647059 2:0.64705882 3:0.52453023 4:0.66369826 5:1.231267 
0.03125 1:0.41176471 2:0.56862745 3:0.47958197 4:0.62279412 5:0.95892532 
0.03125 1:0.40784314 2:0.60392157 3:0.48357162 4:0.65311138 5:1.5127487 
0.03125 1:0.39607843 2:0.5372549 3:0.46774918 4:0.608061 5:1.0697718 
0.03125 1:0.41960784 2:0.56862745 3:0.49786901 4:0.6405433 5:1.3716264 
0.03125 1:0.35686275 2:0.58431373 3:0.44433551 4:0.56785812 5:0.95498676 
0.03125 1:0.34117647 2:0.60392157 3:0.43366694 4:0.53816721 5:1.0335988 
0.03125 1:0.49411765 2:0.63529412 3:0.57975899 4:0.71449483 5:1.4186684 
0.03125 1:0.42745098 2:0.53333333 3:0.48805147 4:0.63048747 5:1.0098138 
0.03125 1:0.36078431 2:0.56862745 3:0.46000136 4:0.61712282 5:1.8244389 
0.03125 1:0.41568627 2:0.61176471 3:0.52248094 4:0.61962827 5:1.5635415 
0.03125 1:0.41176471 2:0.5372549 3:0.47573529 4:0.60943627 5:1.0990214 
0.03125 1:0.3254902 2:0.47843137 3:0.41146514 4:0.57708333 5:1.6584673 
0.03125 1:0.4627451 2:0.68235294 3:0.56955338 4:0.68835103 5:1.3210404 
0.03125 1:0.51372549 2:0.68627451 3:0.61916531 4:0.75947712 5:1.3149789 
-0.03125 1:0.45882353 2:0.65490196 3:0.59075436 4:0.70740741 5:7.7040191 
-0.03125 1:0.49019608 2:0.70196078 3:0.61247277 4:0.73554602 5:16.9504 
-0.03125 1:0.42352941 2:0.61960784 3:0.54428785 4:0.64502315 5:9.2966795 
-0.03125 1:0.46666667 2:0.66666667 3:0.59562908 4:0.74110158 5:14.861183 
-0.03125 1:0.43137255 2:0.66666667 3:0.5615945 4:0.67696759 5:15.590008 
-0.03125 1:0.4627451 2:0.66666667 3:0.59014842 4:0.72370643 5:12.966756 
-0.03125 1:0.36862745 2:0.64705882 3:0.55784314 4:0.69460103 5:22.93866 
-0.03125 1:0.30980392 2:0.6745098 3:0.57473448 4:0.71017838 5:30.812417 
-0.03125 1:0.42352941 2:0.62352941 3:0.55244417 4:0.63656046 5:18.30656 
-0.03125 1:0.45098039 2:0.68627451 3:0.60944308 4:0.74598312 5:20.442733 
-0.03125 1:0.35686275 2:0.61176471 3:0.51286084 4:0.62619826 5:11.216989 
-0.03125 1:0.44705882 2:0.71372549 3:0.60112337 4:0.75238971 5:30.635525 
-0.03125 1:0.44313725 2:0.71372549 3:0.62173203 4:0.74672522 5:10.136134 
-0.03125 1:0.39215686 2:0.67058824 3:0.58360566 4:0.71770833 5:12.587838 
-0.03125 1:0.49803922 2:0.67058824 3:0.59405637 4:0.72142565 5:8.3900669 
-0.03125 1:0.44313725 2:0.60784314 3:0.55213099 4:0.69867919 5:13.488212 
-0.03125 1:0.39607843 2:0.60392157 3:0.53995098 4:0.68545071 5:14.727224 
-0.03125 1:0.39215686 2:0.60784314 3:0.53029003 4:0.66810321 5:18.611662 
-0.03125 1:0.38039216 2:0.59607843 3:0.50296841 4:0.63089597 5:18.161569 
-0.03125 1:0.42745098 2:0.65490196 3:0.56880447 4:0.69462146 5:7.6703677 
-0.03125 1:0.37254902 2:0.64705882 3:0.56055283 4:0.72209967 5:22.920366 
-0.03125 1:0.40392157 2:0.61960784 3:0.54605801 4:0.68784722 5:23.930356 
-0.03125 1:0.45882353 2:0.67843137 3:0.54980256 4:0.67246051 5:25.182367 
-0.03125 1:0.30588235 2:0.6 3:0.51262936 4:0.64722903 5:32.814259 
-0.03125 1:0.44313725 2:0.66666667 3:0.56981209 4:0.69954385 5:13.035536 
-0.03125 1:0.3372549 2:0.61960784 3:0.5234409 4:0.678622 5:19.105418 
-0.03125 1:0.35686275 2:0.63529412 3:0.53321078 4:0.66239788 5:25.160245 
-0.03125 1:0.31764706 2:0.60784314 3:0.4782067 4:0.55113698 5:14.349863 
-0.03125 1:0.45882353 2:0.65490196 3:0.56055283 4:0.71379357 5:19.738999 
-0.03125 1:0.40392157 2:0.6627451 3:0.58267293 4:0.73178105 5:14.7981 
