svm_type c_svc
kernel_type rbf
gamma 0.0078125
nr_class 2
total_sv 14
rho 0.37296722215102135
label 1 -1
nr_sv 7 7
SV
0.5 1:0.37647059 2:0.57647059 3:0.46977124 4:0.61254085 5:1.7407229 
0.5 1:0.44313725 2:0.63137255 3:0.51834831 4:0.64441721 5:1.9142701 
0.021135954744005394 1:0.3254902 2:0.54117647 3:0.45944989 4:0.63122958 5:1.554291 
0.5 1:0.34509804 2:0.61176471 3:0.4943219 4:0.67887391 5:2.0710355 
0.5 1:0.36078431 2:0.56862745 3:0.46000136 4:0.61712282 5:1.8244389 
0.5 1:0.41568627 2:0.61176471 3:0.52248094 4:0.61962827 5:1.5635415 
0.5 1:0.3254902 2:0.47843137 3:0.41146514 4:0.57708333 5:1.6584673 
-0.5 1:0.45882353 2:0.65490196 3:0.59075436 4:0.70740741 5:7.7040191 
-0.5 1:0.42352941 2:0.61960784 3:0.54428785 4:0.64502315 5:9.2966795 
-0.092823730039663599 1:0.30980392 2:0.6745098 3:0.57473448 4:0.71017838 5:30.812417 
-0.42831222470434183 1:0.44313725 2:0.71372549 3:0.62173203 4:0.74672522 5:10.136134 
-0.5 1:0.49803922 2:0.67058824 3:0.59405637 4:0.72142565 5:8.3900669 
-0.5 1:0.42745098 2:0.65490196 3:0.56880447 4:0.69462146 5:7.6703677 
-0.5 1:0.30588235 2:0.6 3:0.51262936 4:0.64722903 5:32.814259 
