svm_type c_svc
kernel_type linear
nr_class 2
total_sv 4
rho -1.6675301918598697
label 1 -1
nr_sv 2 2
SV
0.029424624302438987 1:0.44313725 2:0.63137255 3:0.51834831 4:0.64441721 5:1.9142701 
0.03125 1:0.34509804 2:0.61176471 3:0.4943219 4:0.67887391 5:2.0710355 
-0.029424624302438987 1:0.45882353 2:0.65490196 3:0.59075436 4:0.70740741 5:7.7040191 
-0.03125 1:0.42745098 2:0.65490196 3:0.56880447 4:0.69462146 5:7.6703677 
